-12 => -15 0.5
-12 => -11 0.5
-15 => -13 0.02857142857142857
-15 => -19 0.42857142857142855
-15 => -24 0.3142857142857143
-15 => -11 0.17142857142857143
-15 => -17 0.05714285714285714
-18 => -14 0.375
-18 => -24 0.125
-18 => -11 0.16666666666666666
-18 => -13 0.08333333333333333
-18 => -15 0.125
-18 => -3 0.125
-18 -15 => -24 1.0
-11 => -18 0.5526315789473685
-11 => -3 0.10526315789473684
-11 => -15 0.10526315789473684
-11 => -19 0.15789473684210525
-11 => -13 0.05263157894736842
-11 => -22 0.02631578947368421
-11 -15 => -19 1.0
-24 => -15 0.8888888888888888
-24 => -19 0.1111111111111111
-24 -15 => -11 0.4
-24 -15 => -19 0.26666666666666666
-24 -15 => -24 0.3333333333333333
-24 -15 -24 => -15 1.0
-24 -15 -24 -15 => -11 1.0
-12 -15 => -13 1.0
-13 => -12 0.1111111111111111
-13 => -15 0.4444444444444444
-13 => -3 0.2222222222222222
-13 => -11 0.2222222222222222
-13 -15 => -24 0.5
-13 -15 => -17 0.5
-14 => -15 0.7777777777777778
-14 => -24 0.2222222222222222
-14 -15 => -19 1.0
-19 => -11 0.5769230769230769
-19 => -17 0.15384615384615385
-19 => -3 0.07692307692307693
-19 => -13 0.07692307692307693
-19 => -24 0.07692307692307693
-19 => -22 0.038461538461538464
-19 -13 => -3 1.0
-17 => -11 0.3333333333333333
-17 => -13 0.3333333333333333
-17 => -19 0.3333333333333333
-17 -13 => -11 1.0
-15 -13 => -12 1.0
-24 -15 -19 => -11 0.5
-24 -15 -19 => -13 0.5
-24 -15 -19 -11 => -3 1.0
-19 -11 => -13 0.13333333333333333
-19 -11 => -18 0.7333333333333333
-19 -11 => -3 0.13333333333333333
-11 -15 -19 => -11 0.5
-11 -15 -19 => -17 0.5
-11 -15 -19 -11 => -13 1.0
-17 -11 => -19 1.0
-3 => -11 0.75
-3 => -18 0.25
-3 -11 => -15 0.4444444444444444
-3 -11 => -18 0.1111111111111111
-3 -11 => -19 0.4444444444444444
-18 -3 => -18 0.6666666666666666
-18 -3 => -11 0.3333333333333333
-18 -3 -11 => -18 1.0
-18 -11 => -3 0.6666666666666666
-18 -11 => -22 0.3333333333333333
-15 -11 => -18 1.0
-11 -19 => -3 0.3333333333333333
-11 -19 => -24 0.3333333333333333
-11 -19 => -11 0.3333333333333333
-11 -19 -11 => -18 1.0
-11 -19 -11 -18 => -11 1.0
-13 -11 => -18 1.0
-13 -11 -18 => -13 1.0
-3 -18 => -11 0.6666666666666666
-3 -18 => -3 0.3333333333333333
-24 -19 => -17 1.0
-19 -24 => -19 1.0
-15 -17 => -19 1.0
-22 => -3 1.0
