-18 -11 => -3 0.666666666667
-18 -11 => -22 0.333333333333
-19 -11 => -18 0.733333333333
-19 -11 => -13 0.133333333333
-19 -11 => -3 0.133333333333
-17 => -11 0.333333333333
-17 => -19 0.333333333333
-17 => -13 0.333333333333
-3 -18 => -11 0.666666666667
-3 -18 => -3 0.333333333333
-24 -15 => -24 0.3125
-24 -15 => -19 0.25
-24 -15 => -11 0.375
-24 -15 => 129 0.0625
-24 -19 => -17 1.0
-11 -19 => -24 0.333333333333
-11 -19 => -11 0.333333333333
-11 -19 => -3 0.333333333333
-18 -3 => -11 0.333333333333
-18 -3 => -18 0.666666666667
-18 => -24 0.125
-18 => -11 0.166666666667
-18 => -13 0.0833333333333
-18 => -15 0.125
-18 => -14 0.375
-18 => -3 0.125
-14 -15 => -19 1.0
-19 -24 => -19 1.0
-3 => -11 0.75
-3 => -18 0.25
-11 -15 -19 => -11 0.5
-11 -15 -19 => -17 0.5
-11 -13 => -15 1.0
-11 -19 -11 -18 => -11 1.0
-11 -19 -11 => -18 1.0
-17 -11 => -19 1.0
-13 -11 => -18 1.0
-24 -15 -24 -15 => -11 1.0
129 => -13 0.5
129 => -15 0.5
-15 -13 => -12 1.0
-18 -24 => -15 1.0
-12 => -11 0.5
-12 => -15 0.5
-13 -15 => -24 0.5
-13 -15 => -17 0.5
-18 -3 -11 => -18 1.0
-24 -15 -19 -11 => -3 1.0
-14 => -24 0.222222222222
-14 => -15 0.777777777778
-15 -17 => -19 1.0
-18 -13 => -15 1.0
-13 -19 => -22 1.0
-3 -11 => -19 0.444444444444
-3 -11 => -18 0.111111111111
-3 -11 => -15 0.444444444444
-24 -15 -24 => -15 1.0
-19 -13 => -3 1.0
-19 => -17 0.153846153846
-19 => -24 0.0769230769231
-19 => -22 0.0384615384615
-19 => -11 0.576923076923
-19 => -13 0.0769230769231
-19 => -3 0.0769230769231
-12 -15 => -13 1.0
-24 -15 -19 => -11 0.5
-24 -15 -19 => -13 0.5
-11 -15 -19 -11 => -13 1.0
-24 => -19 0.111111111111
-24 => -15 0.888888888889
-13 -11 -18 => -13 1.0
-17 -13 => -11 1.0
-11 => -22 0.0263157894737
-11 => -13 0.0526315789474
-11 => -15 0.105263157895
-11 => -3 0.105263157895
-11 => -19 0.157894736842
-11 => -18 0.552631578947
-18 -24 -15 => -24 0.666666666667
-18 -24 -15 => 129 0.333333333333
-18 -15 => -24 1.0
-11 -15 => -19 1.0
129 -13 => -19 1.0
-13 => -11 0.2
-13 => -19 0.1
-13 => -12 0.1
-13 => -15 0.4
-13 => -3 0.2
-15 -11 => -18 1.0
-22 => 129 0.5
-22 => -3 0.5
-15 => -24 0.297297297297
-15 => -11 0.162162162162
-15 => -13 0.027027027027
-15 => -12 0.027027027027
-15 => -17 0.0540540540541
-15 => -19 0.405405405405
-15 => 129 0.027027027027
