-15|7	-11|-15	1.0
-15|4	-3|-15	0.25
-15|4	9|-15	0.5
-15|4	-11|-15	0.25
24|	4|24	1.0
-3|5	-19|-3	1.0
2|-22	-8|2	1.0
12|-11	-17|12	0.5
12|-11	4|12	0.5
-5|-20	-17|-5	1.0
-29|7.-24	-22|-29.7.-24	1.0
-22|-17	7|-22.-17	0.5
-25|4	-24|-25	1.0
7|-24.7	-10|7	0.333333333333
7|-24.7	-24|7	0.666666666667
7|0	-12|	1.0
-25|	-24|-25	0.333333333333
-25|	-17|-25	1.0
-25|	-11|-25	1.0
-25|	-5|-25	1.0
-25|	0|-25	1.0
-25|	2|-25	1.0
-25|	-10|-25	1.0
0|	2|0	1.0
0|	-22|0	0.5
0|	-12|	0.05
0|	19|	0.05
0|	-19|0	1.0
0|	-15|0	1.0
0|	9|0	1.0
0|	7|0	1.0
0|	-8|0	1.0
0|	-3|0	1.0
0|	-5|0	0.5
16|	-15|16	1.0
16|	7|16	1.0
16|	-22|16	1.0
12|4	-7|12	0.5
12|4	5|12	0.5
-29|7.-22	-5|-29	1.0
-1|	-8|-1	1.0
-1|	7|-1	1.0
-12|7.-22	7|-12	1.0
-24|-19	4|-24	1.0
-22|-10	-10|-22	0.5
-22|-10	-11|-22	0.5
-10|7	7|-10	0.5
-10|7	0|-10	0.5
19|	-17|19	0.333333333333
19|	-19|	0.2
19|	4|19	1.0
-8|4	-3|-8	1.0
5|-24	7|5	1.0
-22|-29	-25|	1.0
4|-15	-3|4	0.5
4|-15	-15|4	0.5
-19|-10	-15|-19	1.0
-27|	9|-27	1.0
-27|	-11|-27	0.5
-27|	-18|-27	0.5
7|-22.7	-18|7	0.5
7|-22.7	-13|7	0.5
-24|-13	9|-24	1.0
-20|4	0|-20	1.0
9|	-24|9	1.0
9|	-3|	0.176470588235
9|	-18|9	0.333333333333
9|	-22|9	1.0
9|	1|	0.0588235294118
9|	-27|	0.0588235294118
9|	-13|9	0.5
9|	29|	0.0588235294118
9|	-15|9	0.25
-22|-15	-15|-22	1.0
0|-25	-5|0	1.0
-10|-5	7|-10	1.0
-14|	7|-14	0.5
11|	17|	1.0
-22|28	4|-22	1.0
9|-15	-18|9	0.333333333333
9|-15	-15|9	0.333333333333
9|-15	-27|	0.333333333333
-20|23	0|-20	1.0
4|19	-10|4	1.0
0|7	-12|	1.0
-7|-22	-3|-7	1.0
0|-7	-22|0	1.0
9|-10	29|	1.0
1|	-27|	1.0
-17|-10	-10|-17	0.333333333333
-17|-10	-22|-17	0.333333333333
-17|-10	4|-17	0.333333333333
-13|-24	9|-13	1.0
-5|4	-24|-5	0.4
-5|4	7|-5	0.4
-5|4	-18|-5	0.2
2|-5	-17|2	1.0
7|-18	-13|7	0.25
7|-18	-24|7	0.75
7|-17.7	-5|7	1.0
-17|-8	-22|-17	1.0
-10|-22	-19|-10	0.5
-10|-22	-22|-10	0.5
7|-24.-17	-5|7	0.5
7|-24.-17	5|	0.5
-5|-29	-29|-5	1.0
7|-24	-29|7.-24	1.0
7|-24	-10|7	0.105263157895
7|-24	-5|7	0.0526315789474
7|-24	-22|7	0.315789473684
7|-24	-13|7	0.0526315789474
7|-24	-24|7	0.315789473684
7|-24	5|	0.0526315789474
2|8	-18|2	0.5
2|8	-8|2	0.5
-5|7	-24|-5.7	1.0
-5|7	5|-5	0.333333333333
-29|7	-5|-29	0.142857142857
-29|7	-22|-29	0.714285714286
-29|7	-18|-29	0.142857142857
5|-7	-3|5	0.5
5|-7	-19|5	0.5
2|-17	19|2	1.0
-3|-5	-27|	1.0
-24|7	-22|-24	0.214285714286
-24|7	7|-24.7	0.666666666667
-24|7	4|-24	0.285714285714
-24|7	-11|-24	0.0714285714286
-15|-18	-3|-15	1.0
-20|	4|-20	0.5
-20|	0|-20	0.5
-20|	-5|-20	1.0
-20|	-24|-20	1.0
-24|-5.7	5|-24	1.0
0|4	-15|0	1.0
2|-25	-5|2	1.0
7|-22.-5.0	-12|7.-22	0.25
7|-22.-5.0	-24|7.-22	0.75
-24|-17	7|-24.-17	0.5
-24|-17	-15|-24	0.333333333333
-18|-3	21|	0.333333333333
-18|-3	-5|-18	0.333333333333
-18|-3	9|-18	0.333333333333
-11|-19	12|-11	1.0
-17|	-12|-17	1.0
-17|	-18|-17	0.666666666667
-17|	-5|-17	0.125
-17|	-15|-17	1.0
-17|	0|-17	1.0
-17|	12|	0.0217391304348
-17|	-11|-17	0.333333333333
-17|	-22|-17	1.0
-17|	2|-17	1.0
-17|	14|	0.0217391304348
-17|	4|-17	1.0
-17|	-10|-17	0.25
-17|	7|-17	0.133333333333
-17|	-24|-17	0.333333333333
0|-16	9|0	1.0
-8|0	-18|-8	1.0
-22|-13	2|-22	1.0
9|21	1|	1.0
-12|-17	-10|-12	1.0
-18|-29	-25|-18	1.0
-5|-25	-22|-5	1.0
-18|2	9|-18	1.0
-17|-29	7|-17	1.0
-13|5	5|-13	1.0
7|-24.-29	-29|7.-24	1.0
0|12	-19|0	0.5
0|12	-3|0	0.5
-10|-15	-17|-10	1.0
-11|-22	-22|-11	0.5
-11|-22	-8|-11	0.5
9|-24	-13|9	1.0
-3|	9|-3	0.666666666667
-3|	12|	0.142857142857
-3|	-18|-3	0.333333333333
-3|	-27|	0.214285714286
-3|	4|-3	0.5
-3|	-19|-3	1.0
9|-27	-15|9	1.0
4|5	-25|4	1.0
-3|-24	9|-3	1.0
0|-17	7|0	1.0
19|-5	4|19	1.0
-17|7.-14	-10|-17	1.0
-17|4	7|-17	1.0
-25|5	-24|-25	1.0
4|-17	19|	1.0
4|-22	24|	0.5
4|-22	-7|4	0.5
-22|-11	-10|-22	1.0
-21|	-8|-21	1.0
-21|	8|	0.5
-3|4	-27|	1.0
-7|-19	12|	1.0
-15|9	4|-15	0.5
-15|9	-24|-15	0.25
-15|9	-11|-15	0.25
4|-20	-17|4	0.5
4|-20	-5|4	0.5
-24|-20	8|	1.0
-17|-15	-12|-17	0.5
-17|-15	-5|-17	0.5
-12|7.-17	-24|-12	0.5
-12|7.-17	0|-12	0.5
-17|7	-10|-17	0.0769230769231
-17|7	-11|-17	0.0769230769231
-17|7	-5|-17	0.461538461538
-17|7	-24|-17	0.153846153846
-17|7	7|-17.7	1.0
-16|	0|-16	1.0
-10|-12	-7|-10	1.0
4|-8	3|	0.5
4|-8	-21|	0.5
-29|	-5|-29	1.0
-29|	-22|-29	1.0
-29|	-18|-29	1.0
-29|	-17|-29	1.0
-29|	-24|-29	0.666666666667
-3|0	12|	1.0
2|12	0|2	1.0
7|-24.-25	-13|7	1.0
4|-18	-15|4	1.0
0|-24	-5|0	1.0
7|16	16|	1.0
-19|	-24|-19	1.0
-19|	-7|-19	1.0
-19|	-11|-19	1.0
-19|	-22|-19	1.0
-19|	-17|-19	0.5
-19|	-15|-19	1.0
-22|5	-11|-22	1.0
-11|-27	-15|-11	0.5
-11|-27	4|-11	0.5
-10|-8	-7|-10	1.0
-18|-17	-17|-18	0.333333333333
-18|-17	7|-18	0.666666666667
-29|-5	-17|-29	0.25
-29|-5	-24|-29	0.75
7|	12|7	1.0
7|	-15|7	1.0
7|	-11|7	0.5
7|	-25|7	0.25
7|	16|	0.010752688172
7|	-1|	0.0322580645161
7|	-10|7	0.5
7|	-22|7	0.153846153846
7|	-12|	0.0860215053763
7|	-18|7	1.0
7|	11|	0.010752688172
7|	-17|7	0.153846153846
7|	0|7	1.0
7|	-13|7	1.0
7|	5|	0.0215053763441
7|	-5|7	0.666666666667
7|	-29|7	0.142857142857
7|	-24|7	0.0714285714286
7|	28|	0.010752688172
-7|4	-19|-7	0.2
-7|4	-22|-7	0.2
-7|4	12|	0.2
-7|4	4|-7	0.4
7|-11	-15|7	0.2
7|-11	-5|7	0.2
7|-11	-13|7	0.2
7|-11	-22|7.-11	1.0
7|-11	5|	0.2
-25|-22.7	0|-25	1.0
9|-13	-22|9	0.5
9|-13	-24|9	0.5
-24|-5	7|-24	0.571428571429
-24|-5	5|-24	0.285714285714
-24|-5	2|-24	0.142857142857
-17|-25	-5|-17	1.0
-29|-5.-10	-17|-29	1.0
-15|0	9|-15	1.0
-3|-8	-18|-3	1.0
9|0	-15|9	1.0
-11|	-5|-11	1.0
-11|	-15|-11	1.0
-11|	-8|-11	1.0
-11|	7|-11	0.2
-11|	14|	0.047619047619
-11|	4|-11	0.5
-11|	5|-11	0.333333333333
-11|	16|	0.0952380952381
-11|	-22|-11	1.0
-11|	12|-11	0.5
12|2	0|12	1.0
28|	-22|28	1.0
7|-17.-5	-12|7.-17	0.8
7|-17.-5	-11|7	0.2
-5|-10	-10|-5	0.333333333333
-5|-10	-29|-5.-10	1.0
-5|-24	7|-5	1.0
-22|0	-7|-22	0.5
-22|0	8|	0.5
-22|	2|-22	1.0
-22|	-7|-22	1.0
-22|	-25|	0.206896551724
-22|	4|-22	0.5
-22|	-15|-22	1.0
-22|	7|-22	0.0588235294118
-22|	-14|	0.0344827586207
-22|	-11|-22	0.5
-22|	-18|-22	1.0
-22|	-10|-22	0.5
-22|	-5|-22	1.0
-22|	-20|	0.172413793103
-22|	12|-22	0.5
-22|	8|	0.0172413793103
-22|	-17|-22	1.0
-22|-5.0	7|-22.-5.0	0.75
-17|-22	7|-17	1.0
12|7	-11|12	1.0
0|-12	-5|0	1.0
-22|-5.-17	-17|-22	1.0
-17|12	-15|-17	1.0
-17|19	2|-17	0.333333333333
-17|19	-24|-17	0.333333333333
-17|19	4|-17	0.333333333333
9|-18	-3|	1.0
-25|-22.-29.7.-24	-5|-25	1.0
12|	-17|12	1.0
12|	5|12	1.0
12|	4|12	0.666666666667
12|	-7|12	0.25
12|	2|12	1.0
12|	-11|12	1.0
12|	0|12	0.5
4|12	-7|4	0.666666666667
4|12	12|4	0.333333333333
-17|14	14|	0.5
-17|14	7|-17.14	1.0
2|-24	7|2	0.666666666667
2|-24	12|2	0.333333333333
-5|	-10|-5	1.0
-5|	-14|	0.0166666666667
-5|	-24|-5	0.142857142857
-5|	-3|-5	1.0
-5|	7|-5	0.333333333333
-5|	5|-5	1.0
-5|	-17|-5	0.285714285714
-5|	19|-5	1.0
-5|	-22|-5	0.75
-5|	-18|-5	1.0
-5|	-29|-5	0.75
-5|	2|-5	1.0
-10|-25	-5|-10	1.0
7|2	-22|7	1.0
-10|4	-17|-10	1.0
-17|-19	-18|-17	0.5
-17|-19	0|-17	0.5
-8|23	-17|-8	1.0
-3|-18	-18|-3	1.0
0|-10	7|0	1.0
-18|	-5|-18	0.5
-18|	-3|-18	1.0
-18|	9|-18	1.0
-18|	21|	0.0526315789474
-18|	-15|-18	1.0
-18|	-17|-18	1.0
-18|	4|-18	1.0
-18|	-24|-18	1.0
-18|	7|-18	0.75
-18|	-25|-18	1.0
7|-1	-25|7	1.0
-22|-24	-5|-22	0.333333333333
-22|-24	-20|	0.666666666667
4|	-15|4	0.5
4|	24|	0.03125
4|	-25|4	1.0
4|	-10|4	1.0
4|	-7|4	0.2
4|	-18|	0.03125
4|	-3|4	1.0
4|	19|	0.0625
4|	-8|4	1.0
4|	12|4	0.5
4|	-21|	0.03125
4|	-13|4	1.0
4|	-17|4	1.0
4|	-5|4	0.4
4|	3|	0.03125
4|	-20|4	1.0
4|	7|4	1.0
4|	0|4	1.0
-10|14	-22|-10	1.0
9|-3	-18|9	0.666666666667
9|-3	-15|9	0.333333333333
-5|2	-22|-5	1.0
5|12	-13|5	1.0
-11|-17	7|-11	0.333333333333
-11|-17	14|	0.333333333333
-11|-17	5|-11	0.333333333333
-20|-8	-24|-20	1.0
0|-20	-8|0	0.5
0|-20	19|	0.5
-10|	-7|-10	0.5
-10|	9|-10	1.0
-10|	5|-10	1.0
-10|	-19|-10	1.0
-10|	7|-10	0.5
-10|	-17|-10	0.333333333333
-10|	-5|-10	0.333333333333
-10|	-22|-10	0.5
-10|	0|-10	1.0
29|	-5|29	1.0
-13|4	-22|-13	1.0
-24|7.-22	4|-24	1.0
19|2	-19|	1.0
0|-8	-22|0	1.0
-18|7	4|-18	1.0
-3|-7	12|	1.0
-18|-22	7|-18	1.0
0|2	2|0	1.0
4|-24	7|4	0.166666666667
4|-24	-7|4	0.166666666667
4|-24	-5|4	0.5
4|-24	-13|4	0.166666666667
-5|-17	-22|-5.-17	1.0
-5|-17	-29|-5	0.5
-5|-17	-17|-5	0.125
-5|-17	2|-5	0.125
-17|-5	-18|-17	0.285714285714
-17|-5	7|-17.-5	0.2
21|	9|21	1.0
2|5	-17|2	1.0
-15|-22	-10|-15	1.0
-18|-5	7|-18	1.0
-24|3	2|-24	1.0
-22|-29.7.-24	-25|-22.-29.7.-24	1.0
-18|-27	9|-18	0.5
-18|-27	-5|-18	0.5
-24|-18	23|	1.0
5|	2|5	1.0
5|	-19|5	1.0
5|	4|5	1.0
5|	-3|5	1.0
5|	-22|5	1.0
5|	14|	0.0526315789474
5|	-25|5	1.0
5|	-13|5	1.0
5|	7|5	0.111111111111
5|	-10|5	1.0
5|	-11|5	1.0
-24|-12	0|-24	1.0
-8|-1	-16|	1.0
7|-22	12|7	0.0588235294118
7|-22	-12|7.-22	1.0
7|-22	-17|7	0.294117647059
7|-22	-29|7.-22	1.0
7|-22	-5|7	0.0588235294118
7|-22	-13|7	0.0588235294118
7|-22	-24|7.-22	1.0
7|-22	-18|7	0.0588235294118
7|-22	-1|	0.0588235294118
-5|-22	-14|	1.0
4|24	-20|4	1.0
-11|-12	-5|-11	1.0
-17|-18	-10|-17	1.0
-24|	4|-24	0.5
-24|	-15|-24	1.0
-24|	23|	0.0204081632653
-24|	2|-24	0.333333333333
-24|	-13|-24	1.0
-24|	0|-24	1.0
-24|	-11|-24	1.0
-24|	-22|-24	0.333333333333
-24|	9|-24	1.0
-24|	7|-24	0.105263157895
-24|	5|-24	1.0
-24|	-3|-24	1.0
-24|	-5|-24	1.0
-24|	8|	0.0204081632653
-19|0	-22|-19	1.0
-5|29	5|-5	1.0
5|17	-11|5	1.0
-17|2	-11|-17	1.0
7|-10	0|7	0.5
7|-10	-1|	0.5
-24|-15	-3|-24	1.0
12|-22	2|12	0.5
12|-22	4|12	0.5
-13|	7|-13	0.25
-13|	9|-13	0.5
-13|	-22|-13	1.0
-13|	-24|-13	1.0
-13|	5|-13	0.5
4|-3	0|4	0.5
4|-3	-15|4	0.5
-15|16	-11|-15	1.0
-13|2	5|-13	1.0
2|0	-13|2	1.0
-13|9	9|-13	0.5
-13|9	-24|-13	0.5
-8|8	-20|-8	1.0
-24|-25	9|-24	0.333333333333
-24|-25	-13|-24	0.333333333333
-24|-25	7|-24.-25	1.0
5|-11	14|	0.333333333333
5|-11	-10|5	0.333333333333
5|-11	-22|5	0.333333333333
-8|-11	-10|-8	1.0
-11|7	16|	0.5
-11|7	7|-11	0.5
-15|-24	-17|-15	1.0
14|	-17|14	0.5
14|	-10|14	1.0
-24|9	4|-24	1.0
7|-22.-17	-12|7.-22	0.5
7|-22.-17	-1|	0.5
-22|-5	-17|-22	0.125
-22|-5	-14|	0.125
-22|-5	7|-22	0.75
-7|	-3|-7	1.0
-7|	-19|-7	0.5
-7|	-22|-7	0.5
-7|	12|	0.153846153846
-7|	0|-7	1.0
-7|	5|-7	0.5
-7|	3|	0.0769230769231
-7|	4|-7	0.5
-5|0	-22|-5.0	1.0
-5|0	-24|-5	0.5
2|	19|2	1.0
2|	7|2	1.0
2|	-18|2	1.0
2|	-8|2	0.333333333333
2|	-5|2	1.0
2|	0|2	1.0
2|	-13|2	1.0
2|	12|2	1.0
2|	-17|2	1.0
-25|-18	2|-25	1.0
-15|-17	-12|-15	1.0
5|-5	7|5	1.0
-7|12	-22|-7	0.25
-7|12	0|-7	0.25
-7|12	5|-7	0.25
-7|12	3|	0.25
7|-17.14	11|	1.0
-19|5	-11|-19	1.0
5|-10	2|5	1.0
-22|7	-25|-22.7	1.0
-22|7	-18|-22	0.0769230769231
-22|7	7|-22.7	0.5
-22|7	-20|	0.615384615385
7|-5	-22|7.-5	1.0
7|-5	-29|7	0.333333333333
7|-5	-17|7	0.333333333333
-11|-25	7|-11	1.0
4|-11	-8|4	0.5
4|-11	-18|	0.5
-11|-24	7|-11	1.0
-5|-11	-24|-5	1.0
-12|	-24|-12	1.0
-12|	0|-12	1.0
-12|	-10|-12	1.0
-12|	-11|-12	1.0
-12|	7|-12	1.0
-12|	-17|-12	1.0
-8|	0|-8	1.0
-8|	-10|-8	1.0
-8|	-16|	0.1
-8|	4|-8	0.5
-8|	-3|-8	1.0
-8|	-20|-8	1.0
-8|	-17|-8	1.0
-8|	23|	0.1
-8|	-18|-8	1.0
7|-22.16	12|7	1.0
-8|-21	23|	1.0
-7|-10	-19|-7	0.5
-7|-10	5|-7	0.5
-22|16	7|-22.16	1.0
7|5	-29|7	0.888888888889
7|5	28|	0.111111111111
-17|-12	12|	1.0
7|-14	-17|7.-14	1.0
7|-14	-1|	0.5
-10|-17	5|-10	0.25
-10|-17	9|-10	0.25
-10|-17	-5|-10	0.5
-15|-11	-22|-15	1.0
7|-17	11|	0.0666666666667
7|-17	-17|7	0.333333333333
7|-17	-11|7	0.133333333333
7|-17	-5|7	0.2
7|-17	-12|7.-17	0.5
-18|9	-3|-18	0.666666666667
-18|9	-15|-18	0.333333333333
-22|-19	12|-22	1.0
-11|5	16|	1.0
7|-13	-18|7	0.25
7|-13	-22|7	0.25
7|-13	-25|7	0.5
-25|7	-24|-25	0.25
-25|7	-17|-25	0.25
-25|7	-11|-25	0.25
-25|7	-10|-25	0.25
17|	5|17	1.0
-12|-15	-17|-12	1.0
-22|7.-5	-25|-22.7	1.0
23|	-20|23	1.0
23|	-8|23	1.0
3|	-24|3	1.0
3|	-21|	0.5
4|-7	-7|4	0.5
4|-7	12|4	0.5
-3|-15	9|-3	0.5
-3|-15	4|-3	0.5
5|-13	4|5	0.5
5|-13	-25|5	0.5
-24|-29	7|-24.-29	1.0
-24|-29	-5|-24	0.666666666667
-15|-19	-17|-15	1.0
-5|-18	-3|-5	0.5
-5|-18	19|-5	0.5
-22|-7	12|-22	0.5
-22|-7	4|-22	0.5
-11|12	12|-11	1.0
-19|-3	-7|-19	1.0
-8|2	0|-8	0.333333333333
-8|2	4|-8	0.666666666667
7|4	-22|7	1.0
-19|-7	-24|-19	0.5
-19|-7	-17|-19	0.5
-22|9	2|-22	1.0
-13|7	7|-13	1.0
7|-12	-24|7	1.0
-22|7.-11	-18|-22	1.0
-18|-8	-24|-18	1.0
-11|-15	7|-11	0.25
-11|-15	4|-11	0.25
-11|-15	5|-11	0.5
-10|5	-17|-10	1.0
8|	-8|8	1.0
8|	2|8	0.5
-15|	-17|-15	0.5
-15|	-3|-15	0.5
-15|	9|-15	0.333333333333
-15|	4|-15	0.5
-15|	-10|-15	1.0
-15|	-22|-15	1.0
-15|	-12|-15	1.0
-15|	-24|-15	1.0
-15|	-11|-15	0.5
